digraph Tree {
node [shape=box, style="rounded", color="black", fontname=helvetica] ;
edge [fontname=helvetica] ;
0 [label="Duration_ms <= 0.9\nmse = 0.1\nsamples = 35067\nvalue = [[0.2]\n[0.1]]"] ;
1 [label="Speechness <= 1.1\nmse = 0.1\nsamples = 30560\nvalue = [[0.2]\n[0.1]]"] ;
0 -> 1 [labeldistance=2.5, labelangle=45, headlabel="True"] ;
2 [label="Danceability <= 0.6\nmse = 0.1\nsamples = 27547\nvalue = [[0.2]\n[0.1]]"] ;
1 -> 2 ;
3 [label="mse = 0.1\nsamples = 19635\nvalue = [[0.1]\n[0.0]]"] ;
2 -> 3 ;
4 [label="mse = 0.2\nsamples = 7912\nvalue = [[0.3]\n[0.1]]"] ;
2 -> 4 ;
5 [label="Instrumentalness <= -0.6\nmse = 0.2\nsamples = 3013\nvalue = [[0.2]\n[0.4]]"] ;
1 -> 5 ;
6 [label="mse = 0.2\nsamples = 2188\nvalue = [[0.1]\n[0.5]]"] ;
5 -> 6 ;
7 [label="mse = 0.2\nsamples = 825\nvalue = [[0.3]\n[0.2]]"] ;
5 -> 7 ;
8 [label="Danceability <= -0.2\nmse = 0.1\nsamples = 4507\nvalue = [[0.6]\n[0.0]]"] ;
0 -> 8 [labeldistance=2.5, labelangle=-45, headlabel="False"] ;
9 [label="Danceability <= -0.9\nmse = 0.1\nsamples = 1724\nvalue = [[0.1]\n[0.0]]"] ;
8 -> 9 ;
10 [label="mse = 0.0\nsamples = 1194\nvalue = [[0.1]\n[0.0]]"] ;
9 -> 10 ;
11 [label="mse = 0.1\nsamples = 530\nvalue = [[0.3]\n[0.0]]"] ;
9 -> 11 ;
12 [label="Instrumentalness <= -0.0\nmse = 0.1\nsamples = 2783\nvalue = [[0.9]\n[0.0]]"] ;
8 -> 12 ;
13 [label="mse = 0.1\nsamples = 425\nvalue = [[0.4]\n[0.1]]"] ;
12 -> 13 ;
14 [label="mse = 0.0\nsamples = 2358\nvalue = [[0.9]\n[0.0]]"] ;
12 -> 14 ;
}