digraph Tree {
node [shape=box, style="rounded", color="black", fontname=helvetica] ;
edge [fontname=helvetica] ;
0 [label="Duration_ms <= 0.9\nmse = 0.2\nsamples = 35067\nvalue = 0.2"] ;
1 [label="Danceability <= 0.4\nmse = 0.1\nsamples = 30685\nvalue = 0.2"] ;
0 -> 1 [labeldistance=2.5, labelangle=45, headlabel="True"] ;
2 [label="Speechness <= 8.0\nmse = 0.1\nsamples = 19815\nvalue = 0.1"] ;
1 -> 2 ;
3 [label="mse = 0.1\nsamples = 19744\nvalue = 0.1"] ;
2 -> 3 ;
4 [label="mse = 0.1\nsamples = 71\nvalue = 0.9"] ;
2 -> 4 ;
5 [label="Instrumentalness <= -0.2\nmse = 0.2\nsamples = 10870\nvalue = 0.3"] ;
1 -> 5 ;
6 [label="mse = 0.2\nsamples = 8870\nvalue = 0.2"] ;
5 -> 6 ;
7 [label="mse = 0.2\nsamples = 2000\nvalue = 0.5"] ;
5 -> 7 ;
8 [label="Danceability <= -0.2\nmse = 0.2\nsamples = 4382\nvalue = 0.6"] ;
0 -> 8 [labeldistance=2.5, labelangle=-45, headlabel="False"] ;
9 [label="Danceability <= -0.9\nmse = 0.1\nsamples = 1665\nvalue = 0.1"] ;
8 -> 9 ;
10 [label="mse = 0.1\nsamples = 1154\nvalue = 0.1"] ;
9 -> 10 ;
11 [label="mse = 0.2\nsamples = 511\nvalue = 0.3"] ;
9 -> 11 ;
12 [label="Instrumentalness <= -0.0\nmse = 0.1\nsamples = 2717\nvalue = 0.9"] ;
8 -> 12 ;
13 [label="mse = 0.2\nsamples = 400\nvalue = 0.4"] ;
12 -> 13 ;
14 [label="mse = 0.1\nsamples = 2317\nvalue = 0.9"] ;
12 -> 14 ;
}