digraph Tree {
node [shape=box, style="rounded", color="black", fontname=helvetica] ;
edge [fontname=helvetica] ;
0 [label="Danceability <= 0.7\ngini = 0.0\nsamples = 58059\nvalue = [90255, 1831]"] ;
1 [label="Acousticness <= 2.0\ngini = 0.0\nsamples = 42209\nvalue = [65498, 1567]"] ;
0 -> 1 [labeldistance=2.5, labelangle=45, headlabel="True"] ;
2 [label="Valence <= -1.1\ngini = 0.0\nsamples = 39164\nvalue = [60724, 1558]"] ;
1 -> 2 ;
3 [label="gini = 0.0\nsamples = 6824\nvalue = [10832, 100]"] ;
2 -> 3 ;
4 [label="gini = 0.1\nsamples = 32340\nvalue = [49892, 1458]"] ;
2 -> 4 ;
5 [label="Speechness <= -0.5\ngini = 0.0\nsamples = 3045\nvalue = [4774, 9]"] ;
1 -> 5 ;
6 [label="gini = 0.1\nsamples = 32\nvalue = [51, 3]"] ;
5 -> 6 ;
7 [label="gini = 0.0\nsamples = 3013\nvalue = [4723, 6]"] ;
5 -> 7 ;
8 [label="Speechness <= -0.5\ngini = 0.0\nsamples = 15850\nvalue = [24757, 264]"] ;
0 -> 8 [labeldistance=2.5, labelangle=-45, headlabel="False"] ;
9 [label="Energy <= -0.2\ngini = 0.0\nsamples = 2528\nvalue = [3889, 93]"] ;
8 -> 9 ;
10 [label="gini = 0.1\nsamples = 1071\nvalue = [1615, 55]"] ;
9 -> 10 ;
11 [label="gini = 0.0\nsamples = 1457\nvalue = [2274, 38]"] ;
9 -> 11 ;
12 [label="Instrumentalness <= -0.1\ngini = 0.0\nsamples = 13322\nvalue = [20868, 171]"] ;
8 -> 12 ;
13 [label="gini = 0.0\nsamples = 9578\nvalue = [14972, 158]"] ;
12 -> 13 ;
14 [label="gini = 0.0\nsamples = 3744\nvalue = [5896, 13]"] ;
12 -> 14 ;
}